/*!
 * The following copyright notice may not be removed under any circumstances.
 * 
 * Copyright:
 * Copyright (c) SIL International 2003-2005. All rights reserved.
 * 
 * Trademark:
 * Gentium is a trademark of SIL International.
 * 
 * Designer:
 * J. Victor Gaultney
 * 
 * Vendor URL:
 * http://www.sil.org/
 * 
 * License information:
 * http://scripts.sil.org/OFL
 */
Cufon.registerFont({"w":961,"face":{"font-family":"Gentium","font-weight":400,"font-stretch":"normal","units-per-em":"2048","panose-1":"2 0 5 3 6 0 0 2 0 4","ascent":"1638","descent":"-410","x-height":"10","bbox":"-239.661 -1670 1702 501.789","underline-thickness":"14","underline-position":"-41","unicode-range":"U+0020-U+007E"},"glyphs":{" ":{"w":451},"$":{"d":"432,-1115v-140,-4,-251,94,-191,223v32,69,115,98,191,129r0,-352xm522,-113v137,-15,248,-142,189,-294v-31,-79,-110,-117,-189,-151r0,445xm522,143v-18,17,-35,24,-63,31r-27,-22r0,-143v-139,3,-226,-42,-330,-105v-25,-56,-15,-182,0,-244r43,4v55,122,147,200,287,222r0,-479v-155,-62,-334,-108,-334,-318v0,-189,147,-275,334,-299r0,-146v25,-15,32,-21,64,-28r26,22r0,148v121,3,225,32,289,90v3,56,-55,105,-84,141r-39,-8v-46,-53,-98,-93,-166,-114r0,377v162,66,340,129,340,351v0,219,-143,338,-340,377r0,143"},"%":{"d":"1071,-51v161,0,142,-332,77,-447v-26,-48,-91,-91,-148,-52v-115,79,-98,414,12,482v18,11,38,17,59,17xm369,-639v160,-21,142,-333,77,-447v-26,-48,-91,-91,-148,-52v-55,38,-79,119,-77,218v2,142,22,268,148,281xm358,-17v-35,24,-91,36,-135,51r-24,-35r856,-1187v34,-22,90,-38,133,-49r29,33xm1180,-620v128,61,194,264,133,442v-47,136,-206,264,-376,181v-126,-62,-198,-269,-135,-443v49,-135,207,-261,378,-180xm478,-1208v128,61,197,262,135,442v-47,136,-209,264,-379,181v-126,-61,-196,-268,-134,-443v48,-136,208,-261,378,-180","w":1413},"&":{"d":"588,-1343v-144,0,-165,194,-127,334v11,42,27,85,46,129v113,-66,222,-130,222,-291v0,-98,-44,-172,-141,-172xm425,-703v-94,85,-183,165,-183,330v0,181,111,283,286,289v121,4,213,-44,284,-99r-103,-113v-105,-121,-207,-258,-284,-407xm1346,-748v-30,38,-61,63,-99,89v-47,-22,-109,-36,-172,-41v27,40,34,88,33,157v-3,120,-57,223,-119,304v73,63,118,128,209,155v29,9,63,5,102,-4r9,43v-81,35,-155,65,-228,75v-69,-19,-139,-89,-204,-149v-94,78,-218,149,-379,149v-257,0,-418,-125,-418,-382v0,-75,26,-150,77,-226v51,-76,126,-150,223,-221v-51,-118,-91,-286,-36,-424v49,-121,140,-227,297,-227v156,0,227,94,227,246v0,210,-173,314,-319,408v100,183,234,347,373,491v35,-55,65,-120,65,-197v0,-109,-59,-191,-160,-203r-22,-28v15,-18,50,-42,74,-51r444,0","w":1366},"'":{"d":"309,-834v-25,12,-59,21,-96,21r-53,-613v41,-20,100,-41,149,-54r43,21","w":512},"(":{"d":"291,-651v0,399,104,733,319,921r-32,45v-306,-150,-457,-490,-457,-938v0,-350,105,-633,269,-825v56,-65,119,-116,188,-152r32,45v-207,187,-319,508,-319,904","w":649},")":{"d":"360,-635v0,-398,-102,-735,-319,-920r31,-45v306,149,458,488,458,936v0,351,-105,635,-270,828v-56,65,-119,115,-188,151r-31,-45v206,-188,319,-508,319,-905","w":649},"*":{"d":"489,-1188r261,-196v30,20,72,43,94,67r2,41r-326,141r301,129v-3,33,-1,89,-12,115r-37,23r-282,-211r38,323v-34,15,-65,37,-104,47r-39,-18r42,-352r-261,196v-31,-22,-68,-41,-94,-67r-2,-43r326,-140r-302,-129v4,-38,1,-83,12,-114r35,-23r285,212r-39,-326v35,-16,68,-36,107,-48r36,21","w":915},"+":{"d":"477,-236v-25,13,-60,24,-90,31r-25,-22r0,-279r-276,0r-25,-24v7,-28,20,-64,31,-88r270,0r0,-273r91,-29r24,23r0,279r277,0r24,24v-6,25,-20,67,-30,88r-271,0r0,270","w":840},",":{"d":"223,0v-1,-66,-42,-99,-119,-92r-16,-47v49,-42,140,-81,221,-90v123,49,81,254,21,347v-44,69,-98,138,-164,187r-45,-35v61,-69,104,-142,102,-270","w":469},"-":{"d":"629,-545v-7,27,-20,67,-31,90r-512,0r-25,-24v7,-30,20,-65,31,-90r512,0","w":690},".":{"d":"270,-236v68,-3,100,43,99,113v-2,93,-48,160,-138,163v-73,3,-100,-40,-100,-112v0,-92,51,-160,139,-164","w":469},"\/":{"d":"211,284v-34,22,-83,36,-125,51r-37,-25r701,-1861v33,-22,81,-37,122,-49r37,22"},"0":{"d":"593,-112v148,-102,148,-461,107,-694v-22,-122,-68,-219,-141,-278v-56,-45,-132,-48,-190,-8v-150,103,-147,458,-109,689v20,123,62,223,136,282v56,45,138,50,197,9xm667,-1185v249,161,282,757,101,1028v-66,98,-160,187,-307,187v-226,0,-318,-189,-361,-388v-73,-336,16,-693,227,-826v100,-63,242,-64,340,-1"},"1":{"d":"139,-1075v138,-42,296,-109,414,-170r37,35r0,1067v15,46,70,53,126,69v32,9,74,15,124,21r0,53r-670,0r0,-53v105,-13,194,-24,257,-67v10,-7,13,-16,13,-23r0,-797v2,-77,-4,-117,-89,-111v-63,4,-123,12,-191,27"},"2":{"d":"684,-121v79,-8,92,-103,102,-178r50,12r-15,287r-694,0r-29,-74r208,-244r151,-188v86,-116,167,-200,202,-340v40,-158,-27,-303,-192,-295v-115,6,-176,93,-186,207v-41,22,-71,45,-129,49r-27,-30v16,-148,138,-236,259,-289v49,-21,100,-31,151,-31v211,0,333,161,273,373v-60,213,-225,366,-359,525r-183,216r418,0"},"3":{"d":"766,-958v0,141,-107,209,-211,260v160,27,270,138,270,317v0,193,-96,319,-238,379v-96,40,-248,43,-345,0v-66,-29,-121,-66,-174,-117r34,-67v85,61,154,114,291,114v173,0,270,-103,273,-276v3,-193,-129,-300,-324,-268r-14,-60v132,-37,237,-84,270,-198v40,-138,-32,-267,-172,-267v-101,0,-169,59,-156,168v-45,22,-78,35,-139,39r-27,-31v17,-126,126,-199,234,-243v45,-18,94,-27,145,-27v180,3,283,105,283,277"},"4":{"d":"586,-1040r-373,579r373,0r0,-579xm874,-430v-26,41,-44,53,-79,80r-70,0r0,246v7,30,40,33,71,44v18,6,41,11,68,17r0,43r-489,0r0,-43v82,-16,151,-23,203,-55v6,-5,8,-11,8,-17r0,-235r-498,0r-33,-33r496,-791v51,-21,93,-48,137,-71r37,35r0,749r123,0"},"5":{"d":"264,-754v102,-29,264,-40,360,4v125,57,212,168,212,340v0,197,-90,337,-228,404v-103,50,-239,45,-352,2v-61,-23,-120,-61,-178,-115r35,-67v91,61,168,114,305,114v174,0,258,-124,258,-295v0,-187,-86,-303,-273,-303v-90,0,-162,38,-219,80r-47,-33r63,-399r19,-182r436,0v56,0,84,-7,121,-19r29,29v-30,43,-70,87,-111,119r-387,0r-19,167"},"6":{"d":"731,-348v0,-182,-66,-311,-231,-311v-98,0,-174,53,-230,123v1,202,39,361,162,432v33,19,72,28,113,28v143,0,186,-130,186,-272xm541,-770v256,-6,379,196,329,456v-29,153,-115,273,-251,324v-158,60,-316,-26,-393,-119v-114,-138,-145,-422,-74,-635v93,-279,307,-457,636,-505r19,59v-284,69,-469,251,-528,540v67,-63,146,-117,262,-120"},"7":{"d":"885,-1167r-270,643r-138,353v-19,49,-34,92,-45,127v-48,34,-96,57,-162,74r-41,-33v198,-344,345,-698,504,-1072r-483,1v-60,20,-71,77,-100,144r-46,-18r31,-200v4,-23,8,-41,12,-56r705,0"},"8":{"d":"451,-1141v-115,0,-177,80,-177,191v0,146,153,171,258,226v78,-57,136,-111,136,-214v0,-137,-80,-203,-217,-203xm500,-70v224,11,262,-319,122,-433v-53,-43,-120,-76,-188,-107v-94,72,-180,139,-180,295v0,152,92,237,246,245xm612,-688v130,65,252,145,252,336v0,183,-117,294,-253,352v-146,63,-345,17,-424,-66v-51,-54,-93,-124,-93,-219v0,-191,134,-282,263,-359v-108,-53,-212,-113,-212,-271v0,-158,97,-250,217,-296v44,-16,90,-24,140,-24v186,4,313,86,313,266v0,149,-112,210,-203,281"},"9":{"d":"248,-856v0,180,68,301,233,301v106,0,180,-68,228,-138v-1,-149,-30,-263,-84,-345v-37,-55,-87,-92,-160,-92v-152,0,-217,118,-217,274xm704,-576v-79,99,-254,170,-408,105v-142,-59,-232,-230,-182,-427v39,-153,137,-267,280,-318v146,-52,291,14,364,100v115,137,141,454,71,668v-92,279,-311,443,-639,491r-18,-59v296,-75,496,-233,532,-560"},":":{"d":"270,-236v68,-3,100,43,99,113v-2,93,-48,160,-138,163v-73,3,-100,-40,-100,-112v0,-92,51,-160,139,-164xm270,-961v68,-3,100,43,99,113v-2,93,-48,160,-138,163v-73,3,-100,-40,-100,-112v0,-92,51,-160,139,-164","w":469},";":{"d":"223,0v-1,-66,-42,-99,-119,-92r-16,-47v49,-42,140,-81,221,-90v123,49,81,254,21,347v-44,69,-98,138,-164,187r-45,-35v61,-69,104,-142,102,-270xm270,-961v68,-3,100,43,99,113v-2,93,-48,160,-138,163v-73,3,-100,-40,-100,-112v0,-92,51,-160,139,-164","w":469},"<":{"d":"61,-530r31,-99r721,-270r25,25r-29,100r-555,206r567,210r17,36v-28,23,-51,47,-84,66r-668,-250","w":899},"=":{"d":"61,-680v7,-27,20,-65,31,-88r721,0r25,25v-7,27,-20,61,-29,88r-723,0xm838,-444v-6,27,-21,65,-29,90r-723,0r-25,-27v7,-28,20,-64,31,-88r721,0","w":899},">":{"d":"838,-625r-31,101r-721,268r-25,-25r31,-98r551,-206r-565,-210r-17,-39r84,-65r670,250","w":899},"?":{"d":"440,-236v68,-3,100,43,99,113v-2,93,-48,160,-138,163v-73,3,-100,-40,-100,-112v0,-92,51,-160,139,-164xm502,-1480v198,0,305,117,305,315v0,325,-309,374,-338,680r-6,96v-28,20,-38,30,-76,41r-25,-21v-4,-82,-17,-157,9,-229v58,-160,184,-274,248,-424v80,-187,-52,-432,-263,-346v-76,31,-137,136,-100,240v-44,23,-87,31,-147,38v-14,-17,-31,-27,-29,-63v11,-167,127,-257,262,-303v50,-17,104,-24,160,-24","w":887},"@":{"d":"858,-852v-191,0,-248,172,-248,377v0,157,54,280,142,347v79,60,155,1,197,-48v17,-20,40,-44,65,-74r0,-481v-33,-62,-65,-121,-156,-121xm1450,137v-134,132,-329,238,-596,238v-384,0,-617,-204,-726,-493v-62,-164,-83,-384,-28,-568v90,-304,298,-519,598,-614v159,-50,353,-43,496,18v256,110,389,363,389,733v0,238,-105,399,-240,505v-50,39,-112,74,-186,74v-99,0,-121,-95,-137,-192v-75,93,-112,192,-266,192v-152,0,-224,-140,-268,-275v-44,-134,-30,-324,27,-435v73,-142,172,-280,376,-280v88,0,119,44,166,92v40,-25,75,-55,108,-92r31,30v-53,169,-25,429,-31,645v-3,100,30,170,109,176v53,-9,92,-66,121,-117v39,-72,72,-175,71,-286v-1,-327,-123,-553,-346,-656v-184,-85,-453,-39,-587,52v-178,121,-312,305,-312,592v0,367,172,609,425,726v262,121,613,15,779,-120","w":1653},"A":{"d":"411,-535r347,0r-176,-514xm776,0r0,-43v52,-3,88,-11,109,-21v21,-10,25,-25,18,-47r-114,-333r-408,0r-111,333v-6,21,4,36,28,45v24,9,63,17,118,23r0,43r-416,0r0,-43v73,-16,141,-15,158,-68r372,-1126v27,-31,81,-60,117,-80r420,1206v19,48,59,60,131,68r0,43r-422,0","w":1219,"k":{"y":100,"w":80,"v":100,"Y":180,"W":120,"V":160,"U":80,"T":100,"Q":30,"O":30,"G":30,"C":30}},"B":{"d":"749,-971v0,-203,-179,-244,-394,-233r0,479v223,3,394,-42,394,-246xm364,-89v224,54,493,-1,488,-233v-3,-145,-77,-243,-182,-296v-80,-40,-217,-33,-315,-17r0,531v0,5,3,10,9,15xm905,-1020v0,149,-79,255,-190,297v174,40,301,162,301,367v0,193,-118,298,-272,344v-196,59,-456,5,-694,12r0,-43v45,-9,80,-20,106,-31v26,-11,39,-21,39,-30r0,-1086r-145,22r-9,-62v253,-70,710,-115,833,97v20,34,31,71,31,113","w":1126},"C":{"d":"643,-90v133,0,232,-77,338,-166v16,9,26,32,37,45v-121,120,-228,241,-447,241v-242,0,-382,-164,-457,-356v-62,-158,-57,-393,4,-550v88,-230,261,-405,558,-414v137,-4,250,42,323,100v-4,49,-62,87,-90,123r-35,-6v-86,-93,-306,-151,-438,-55v-135,98,-212,267,-211,505v1,250,107,419,273,499v49,24,98,34,145,34","w":1098,"k":{"A":60}},"D":{"d":"952,-637v0,-380,-193,-601,-597,-566r0,1049v1,43,22,54,64,62v78,15,188,12,261,-26v167,-86,272,-261,272,-519xm41,-1230v205,-50,519,-97,728,-18v221,83,355,272,355,572v0,362,-159,581,-441,660v-43,12,-85,16,-124,16r-509,0r0,-43v45,-9,80,-20,106,-31v26,-11,39,-21,39,-30r0,-1084r-145,20","w":1214,"k":{"Y":60,"W":20,"V":-40,"A":60}},"E":{"d":"954,-244v-7,88,-25,182,-41,244r-863,0r0,-43v45,-9,80,-20,106,-31v26,-11,39,-21,39,-30r0,-1051v0,-8,-13,-18,-37,-30v-24,-12,-60,-23,-108,-32r0,-43r806,0r33,25v-6,78,-22,161,-41,225r-45,0v-7,-79,-7,-160,-82,-160r-366,0r0,435r405,0r26,28v-24,39,-57,79,-92,107v-61,-70,-208,-53,-339,-55r0,501v3,49,47,53,98,60v60,8,162,1,235,4v147,5,185,-63,223,-172","w":1016},"F":{"d":"664,-600v-56,-65,-186,-54,-309,-55r0,551v0,8,13,17,39,27v26,10,71,21,136,34r0,43r-480,0r0,-43v45,-9,80,-20,106,-31v26,-11,39,-21,39,-30r0,-1051v0,-8,-13,-18,-37,-30v-24,-12,-60,-23,-108,-32r0,-43r816,0r31,25v-4,78,-20,161,-39,225r-47,0v-6,-80,-6,-160,-82,-160r-374,0r0,435r374,0r29,28v-25,39,-60,78,-94,107","w":979,"k":{"o":80,"e":80,"a":80,"A":150,".":200,",":200}},"G":{"d":"1040,-154v-126,97,-220,184,-422,184v-257,0,-417,-146,-500,-342v-66,-157,-61,-410,4,-568v98,-239,295,-410,615,-410v124,0,228,47,305,102v8,19,-15,37,-28,52v-20,23,-45,44,-68,65r-33,-6v-72,-72,-173,-116,-315,-103v-199,18,-304,173,-354,358v-34,126,-26,315,16,427v64,169,177,297,385,305v99,4,181,-21,245,-56r0,-339v-10,-43,-59,-48,-106,-62v-26,-8,-59,-13,-100,-20r0,-43r461,0r0,43v-58,14,-105,33,-105,82r-1,326v-4,2,-2,3,1,5","w":1194},"H":{"d":"50,0r0,-43v45,-9,80,-20,106,-31v26,-11,39,-21,39,-30r0,-1051v0,-8,-13,-18,-37,-30v-24,-12,-60,-23,-108,-32r0,-43r450,0r0,43v-45,9,-80,20,-106,31v-26,11,-39,22,-39,31r0,450r610,0r0,-450v0,-8,-13,-18,-37,-30v-24,-12,-60,-23,-108,-32r0,-43r450,0r0,43v-45,9,-80,20,-106,31v-26,11,-39,22,-39,31r0,1051v0,8,13,18,37,30v24,12,60,22,108,31r0,43r-450,0r0,-43v45,-9,80,-20,106,-31v26,-11,39,-21,39,-30r0,-511r-610,0r0,511v0,8,12,18,36,30v24,12,60,22,109,31r0,43r-450,0","w":1339},"I":{"d":"70,0r0,-43v45,-9,80,-20,106,-31v26,-11,39,-21,39,-30r0,-1051v0,-8,-13,-18,-37,-30v-24,-12,-60,-23,-108,-32r0,-43r450,0r0,43v-45,9,-80,20,-106,31v-26,11,-39,22,-39,31r0,1051v0,8,13,18,37,30v24,12,60,22,108,31r0,43r-450,0","w":610},"J":{"d":"-74,200v55,38,140,88,214,40v92,-60,110,-204,110,-373r0,-1022v-14,-30,-55,-34,-97,-45v-25,-7,-58,-11,-98,-17r0,-43r500,0r0,43v-45,9,-81,20,-107,31v-26,11,-38,22,-38,31r0,950v1,194,-35,330,-124,425v-76,81,-169,160,-311,160v-62,0,-117,-29,-151,-58v-37,-31,12,-58,30,-75v18,-18,49,-38,72,-47","w":625},"K":{"d":"1174,-37v-92,25,-249,97,-320,8r-497,-614r407,-485v32,-31,50,-74,-10,-82v-17,-3,-38,-5,-64,-7r0,-43r420,0r0,43v-73,9,-132,19,-170,62r-434,484r479,544v35,45,105,58,182,47xm50,0r0,-43v45,-9,80,-20,106,-31v26,-11,39,-21,39,-30r0,-1051v0,-8,-13,-18,-37,-30v-24,-12,-60,-23,-108,-32r0,-43r450,0r0,43v-45,9,-80,20,-106,31v-26,11,-39,22,-39,31r0,1051v0,8,12,18,36,30v24,12,60,22,109,31r0,43r-450,0","w":1184,"k":{"O":60}},"L":{"d":"944,-244v-7,89,-25,181,-41,244r-853,0r0,-43v45,-9,80,-20,106,-31v26,-11,39,-21,39,-30r0,-1051v0,-8,-13,-18,-37,-30v-24,-12,-60,-23,-108,-32r0,-43r450,0r0,43v-45,9,-80,20,-106,31v-26,11,-39,22,-39,31r0,991v9,77,97,74,186,74r143,0v146,8,179,-64,217,-172","w":975,"k":{"Y":140,"W":60,"V":180,"T":130}},"M":{"d":"1550,-1217v-49,1,-96,16,-135,35r10,1078v0,8,13,18,37,30v24,12,60,22,108,31r0,43r-453,0r0,-43v45,-9,82,-20,111,-31v29,-11,44,-21,44,-30r-9,-943r-440,1047r-49,0r-448,-1039r-9,935v0,8,13,18,37,30v24,12,60,22,108,31r0,43r-402,0r0,-43v46,-9,82,-20,107,-31v25,-11,38,-21,38,-30r10,-1073v-40,-26,-90,-39,-145,-40r0,-43r286,0v45,6,47,46,64,84r398,902r403,-948v12,-21,15,-38,43,-38r286,0r0,43","w":1651},"N":{"d":"195,-1149v-40,-38,-85,-56,-145,-68r0,-43r212,0v58,-1,72,44,96,78r657,906r0,-879v0,-8,-11,-18,-33,-31v-22,-13,-59,-24,-112,-31r0,-43r410,0r0,43v-48,7,-84,16,-108,29v-24,13,-37,24,-37,33r0,1185v-55,-6,-97,-20,-119,-51r-701,-972r0,889v0,8,11,18,33,31v22,13,60,23,112,30r0,43r-410,0r0,-43v49,-6,86,-15,110,-28v24,-13,35,-24,35,-33r0,-1045","w":1329},"O":{"d":"756,-124v256,-112,287,-642,122,-882v-61,-88,-136,-170,-274,-170v-282,0,-379,242,-379,535v0,231,92,413,233,507v87,59,202,52,298,10xm1009,-1091v116,154,173,467,84,703v-60,158,-164,287,-302,363v-130,72,-304,73,-430,2v-182,-103,-291,-312,-291,-589v0,-298,144,-513,342,-623v130,-72,314,-74,439,-1v63,36,114,86,158,145","w":1229,"k":{"Y":60,"X":50,"V":60,"A":60}},"P":{"d":"827,-895v-3,-253,-206,-327,-472,-309r0,1100v13,29,50,33,89,44v22,6,51,11,86,17r0,43r-480,0r0,-43v45,-9,80,-20,106,-31v26,-11,39,-21,39,-30r0,-1086r-145,22r-9,-62v234,-61,631,-108,813,31v75,57,128,139,128,263v0,227,-142,340,-324,390v-85,23,-180,10,-246,-19r-23,-76v110,54,269,28,342,-41v51,-48,97,-115,96,-213","w":1071,"k":{"A":120,".":200,",":200}},"Q":{"d":"756,-124v256,-112,287,-642,122,-882v-61,-88,-136,-170,-274,-170v-282,0,-379,242,-379,535v0,231,92,413,233,507v87,59,202,52,298,10xm1282,117v-39,70,-82,136,-144,175v-50,32,-105,7,-158,-18v-131,-61,-237,-176,-360,-247v-188,19,-319,-77,-408,-186v-127,-156,-187,-471,-98,-712v59,-159,160,-288,298,-364v130,-71,313,-71,439,-1v222,123,347,464,259,794v-52,197,-175,350,-345,430v89,46,173,111,265,154v98,46,167,-19,225,-60","w":1229},"R":{"d":"792,-956v-6,-214,-206,-262,-437,-247r0,512v231,32,443,-45,437,-265xm477,-598v-45,1,-83,-2,-122,-11r0,505v0,8,12,18,36,30v24,12,60,22,109,31r0,43r-450,0r0,-43v45,-9,80,-20,106,-31v26,-11,39,-21,39,-30r0,-1085r-145,21r-9,-62v223,-65,607,-100,787,27v68,48,118,115,118,216v0,223,-144,327,-329,373r331,475v33,51,94,69,180,59r11,43v-69,22,-150,49,-224,51v-41,1,-82,-29,-98,-55","w":1149,"k":{"W":60,"V":80,"T":40}},"S":{"d":"650,-1126v-122,-100,-403,-73,-396,112v5,120,110,164,200,208r116,56v169,81,370,203,303,465v-48,189,-193,315,-433,315v-124,0,-227,-47,-309,-98v-25,-57,-15,-191,0,-256r41,5v54,131,148,229,324,229v111,0,190,-68,233,-144v33,-58,30,-142,-4,-195v-128,-196,-462,-196,-571,-413v-38,-76,-29,-195,11,-264v74,-130,239,-208,451,-177v82,13,161,38,207,85v8,52,-51,99,-78,133r-36,-6v-19,-22,-40,-39,-59,-55","w":975},"T":{"d":"1083,-1235v-3,78,-16,161,-30,235r-45,0v-21,-67,-13,-170,-93,-170r-284,0r0,1055v0,9,12,20,36,33v24,13,67,26,128,39r0,43r-488,0r0,-43v63,-13,117,-27,155,-57v6,-6,9,-10,9,-15r0,-1055r-299,0v-52,3,-59,39,-81,82v-12,23,-23,54,-38,93r-43,-19v3,-39,8,-81,14,-126v6,-45,12,-85,19,-120r1010,0","w":1128,"k":{"o":80,"e":80,"a":80,"A":120,".":130,",":130}},"U":{"d":"355,-494v3,248,105,410,350,410v161,0,237,-121,275,-253v14,-48,20,-97,20,-146r0,-672v0,-8,-12,-18,-36,-30v-24,-12,-61,-23,-109,-32r0,-43r420,0r0,43v-45,9,-81,20,-107,31v-26,11,-38,22,-38,31r0,631v-1,258,-92,436,-270,516v-57,25,-122,38,-194,38v-303,0,-471,-165,-471,-474r0,-711v0,-8,-13,-18,-37,-30v-24,-12,-60,-23,-108,-32r0,-43r450,0r0,43v-45,9,-80,20,-106,31v-26,11,-39,22,-39,31r0,661","w":1339,"k":{"A":100}},"V":{"d":"1290,-1217v-71,17,-137,14,-155,66r-383,1092v-22,54,-90,74,-150,89r-440,-1181v-11,-33,-59,-55,-142,-66r0,-43r435,0r0,43v-52,3,-88,10,-109,20v-21,10,-26,25,-18,46r352,948r336,-948v7,-19,0,-34,-24,-43v-24,-9,-63,-16,-118,-23r0,-43r416,0r0,43","w":1331,"k":{"o":120,"e":120,"a":120,"O":80,"G":80,"A":200,".":260,",":260}},"W":{"d":"1702,-1217v-45,13,-100,19,-136,41v-9,6,-14,13,-16,21r-229,1096v-16,56,-82,75,-139,89r-326,-974r-287,885v-21,57,-88,75,-151,89r-260,-1177v-20,-49,-66,-54,-138,-70r0,-43r429,0r0,43v-52,5,-89,12,-119,29v-15,10,-22,20,-17,41r199,897r324,-1010r55,0r354,1010r187,-905v-4,-38,-53,-40,-91,-50v-19,-5,-40,-8,-63,-12r0,-43r424,0r0,43","w":1741,"k":{"o":80,"e":80,"a":80,"O":40,"A":160,".":200,",":200}},"X":{"d":"778,0r0,-43v47,-5,86,-8,110,-27v21,-16,9,-35,-5,-57r-279,-408r-252,408v-19,29,-18,50,4,61v22,11,64,19,125,23r0,43r-450,0r0,-43v85,-7,147,-27,182,-84r317,-517r-333,-489v-33,-54,-79,-75,-156,-84r0,-43r451,0r0,43v-57,5,-93,13,-110,24v-17,11,-16,31,3,60r247,363r226,-363v43,-76,-56,-78,-131,-84r0,-43r453,0r0,43v-84,8,-148,27,-183,84r-291,471r365,535v33,51,82,76,158,84r0,43r-451,0","w":1260},"Y":{"d":"360,0r0,-43v61,-13,104,-26,128,-39v24,-13,36,-24,36,-33r0,-422v-99,-213,-227,-432,-356,-614v-31,-43,-85,-56,-164,-55r-4,-43v39,-5,79,-11,118,-15v82,-8,138,-20,179,33v122,160,231,359,326,551r268,-471v10,-17,7,-31,-9,-41v-16,-10,-51,-18,-102,-25r0,-43r396,0r0,43v-75,16,-130,18,-156,66r-336,610r0,426v28,47,98,55,166,72r0,43r-490,0","w":1217,"k":{"o":120,"e":120,"a":120,"S":40,"O":80,"A":160,".":200,",":200}},"Z":{"d":"150,-1276v58,14,118,16,190,16r616,0r25,43r-705,1117r523,0v64,-4,79,-52,102,-105v12,-26,22,-61,35,-102r55,14r-12,293r-891,0r-29,-45r711,-1115r-459,0v-87,18,-110,108,-133,197r-57,-12","w":1071},"[":{"d":"590,249v-6,26,-19,64,-29,86r-422,0r0,-1935r416,0r33,26v-5,27,-17,66,-27,86r-280,0r0,1708r274,0","w":631},"\\":{"d":"870,335v-37,-17,-83,-29,-114,-51r-701,-1862r37,-22v39,10,76,26,113,49r700,1861"},"]":{"d":"41,-1514v3,-28,18,-64,27,-86r421,0r0,1935r-413,0r-33,-29v3,-27,15,-68,25,-86r282,0r0,-1708r-274,0","w":631},"^":{"d":"907,-635v-35,32,-60,48,-106,70r-37,-27r-283,-723r-250,680v-30,27,-69,51,-108,70r-23,-27r322,-870v37,-34,87,-64,133,-88","w":1008},"_":{"d":"897,156v-7,28,-19,66,-29,90r-782,0r-25,-27v7,-28,20,-64,31,-88r782,0"},"`":{"d":"438,-1078v-13,11,-36,25,-56,31r-352,-377r22,-41r146,-24","w":653},"a":{"d":"258,-308v-36,90,-5,212,94,208v115,-5,191,-59,271,-127r0,-261v-154,27,-314,53,-365,180xm926,-82v-82,54,-141,98,-224,112v-59,-9,-77,-92,-79,-173v-88,83,-179,173,-330,173v-130,0,-213,-80,-213,-216v0,-287,285,-331,543,-377r0,-139v27,-185,-250,-199,-321,-76v-17,30,6,58,-30,74v-38,16,-99,40,-150,37r-14,-39v56,-113,176,-192,306,-233v45,-14,88,-21,130,-21v143,-1,229,79,229,218r0,564v0,44,7,78,40,78v38,0,58,-11,98,-27","w":940,"k":{"w":30,"v":30}},"b":{"d":"290,-203v91,67,253,145,384,77v89,-47,142,-150,142,-282v0,-179,-50,-320,-156,-389v-112,-73,-220,17,-286,83v-28,28,-56,63,-84,104r0,407xm253,-1550r37,34r0,789v79,-93,162,-181,279,-219v194,-62,313,93,357,258v37,140,24,327,-36,434v-83,149,-199,284,-421,284v-127,0,-229,-74,-329,-126r0,-1200v0,-72,-5,-116,-64,-125v-17,-3,-39,-6,-66,-9r0,-40v91,-23,169,-38,243,-80","w":1040},"c":{"d":"537,-102v135,0,177,-63,264,-129r39,41v-71,83,-125,141,-206,186v-86,48,-219,47,-312,2v-147,-71,-242,-223,-242,-442v0,-242,136,-395,309,-476v135,-63,354,-47,436,39v0,62,-33,122,-57,164r-37,-10v-42,-97,-207,-161,-333,-99v-111,55,-168,180,-168,351v0,171,77,289,192,347v37,18,75,26,115,26","w":895,"k":{"l":30,"k":30,"h":30}},"d":{"d":"520,-850v-208,0,-290,158,-290,375v0,164,67,288,170,347v147,85,260,-56,345,-133r0,-469v-39,-70,-122,-120,-225,-120xm1051,-84v-75,45,-128,114,-222,114v-22,0,-40,-15,-54,-45v-14,-30,-23,-81,-28,-154v-85,96,-161,199,-331,199v-164,0,-252,-137,-304,-275v-51,-134,-34,-326,28,-435v82,-144,195,-280,411,-280v85,0,135,18,194,63r0,-377v-1,-85,5,-147,-63,-162v-19,-4,-47,-7,-82,-10r0,-39v100,-12,185,-40,264,-65r31,30r1,1326v7,48,0,102,56,94v17,-3,46,-12,86,-27","w":1065},"e":{"d":"702,-616v0,-138,-64,-240,-206,-240v-164,0,-231,129,-259,276r427,0v30,-1,38,-6,38,-36xm526,-102v146,-1,206,-65,297,-134v15,7,29,29,37,41v-116,115,-183,225,-395,225v-189,0,-296,-124,-353,-272v-52,-136,-34,-336,26,-447v76,-142,187,-271,386,-271v239,0,331,169,342,403v-25,28,-71,51,-110,67r-526,0v2,166,65,293,172,356v37,21,78,32,124,32","w":946,"k":{"x":30}},"f":{"d":"690,-1343v-47,-38,-98,-75,-170,-84v-99,13,-129,103,-153,207v-17,69,-18,190,-17,290r258,0r29,29v-26,36,-60,77,-98,100v-47,-22,-103,-37,-189,-35r0,734v19,28,66,28,110,40v26,7,60,12,99,19r0,43r-499,0r0,-43v46,-8,80,-17,104,-29v24,-12,36,-22,36,-30r0,-734r-134,0r-21,-28r78,-66r77,0v-4,-205,28,-359,123,-458v76,-80,165,-162,306,-162v69,0,129,39,170,71v44,34,-11,62,-31,82v-20,20,-54,42,-78,54","w":637},"g":{"d":"514,-399v109,0,176,-83,176,-201v0,-165,-105,-258,-274,-258v-105,0,-176,84,-176,199v0,167,100,260,274,260xm807,106v-70,-99,-272,-90,-419,-122v-76,41,-130,77,-176,126v-41,43,-39,109,-4,160v87,126,393,173,530,58v54,-45,106,-136,69,-222xm775,-813v58,74,75,218,21,313v-68,118,-191,202,-367,206v-42,34,-68,63,-83,98v13,50,69,54,128,66v204,43,496,31,496,250v0,182,-135,269,-268,330v-215,100,-571,42,-652,-134v-32,-69,-20,-156,28,-203v59,-59,126,-105,219,-155v-66,-24,-107,-48,-115,-111v7,-45,37,-67,69,-98v18,-17,43,-36,74,-57v-131,-39,-225,-129,-225,-294v0,-171,116,-274,243,-330v116,-51,269,-27,350,37v107,-10,195,-34,276,-65r20,30v-18,38,-27,70,-57,100v-53,10,-96,14,-157,17","w":999},"h":{"d":"650,-941v160,-61,310,30,310,200r0,637v0,9,10,19,30,28v20,9,57,20,110,33r0,43r-430,0r0,-43v48,-13,83,-24,106,-33v23,-9,34,-19,34,-28r0,-529v0,-116,-15,-204,-128,-197v-116,7,-182,84,-249,158v-31,34,-59,76,-88,123r0,445v0,10,12,20,37,31v25,11,60,21,103,30r0,43r-430,0r0,-43v44,-11,78,-22,103,-31v25,-9,37,-19,37,-30r0,-1194v1,-72,-5,-110,-64,-120v-19,-4,-44,-8,-76,-12r0,-40v98,-18,178,-40,253,-80r37,34r0,832v75,-110,178,-208,305,-257","w":1130},"i":{"d":"190,-1220v0,-76,41,-136,115,-136v57,0,85,32,85,95v0,77,-41,134,-116,137v-61,2,-84,-36,-84,-96xm70,-880v91,-18,182,-46,256,-80r34,0r0,856v0,8,12,18,34,30v22,12,57,22,106,31r0,43r-430,0r0,-43v45,-9,80,-20,104,-31v24,-11,36,-21,36,-30r-2,-648v-5,-76,-60,-79,-138,-88r0,-40","w":555},"j":{"d":"166,-1220v0,-76,41,-136,115,-136v56,0,84,32,84,95v0,76,-41,134,-115,137v-61,3,-84,-36,-84,-96xm-113,320v45,42,137,69,195,26v90,-66,103,-216,103,-389r0,-627v-1,-81,5,-139,-59,-156v-19,-5,-46,-10,-81,-14r0,-40v98,-16,173,-47,253,-80r37,0r0,861v8,336,-120,510,-363,591v-75,25,-154,-7,-198,-41v-40,-30,19,-57,35,-77v22,-19,54,-42,78,-54","w":530},"k":{"d":"1024,-18v-96,19,-237,54,-299,-25r-377,-482r-3,-1r0,422v3,28,25,30,51,41v14,6,34,12,59,20r0,43r-400,0r0,-43v44,-11,78,-21,103,-30v25,-9,37,-19,37,-31r0,-1192v1,-75,-7,-117,-69,-125v-18,-3,-42,-6,-71,-9r0,-40v90,-19,185,-40,253,-80r37,34r0,990r308,-273v27,-28,51,-40,37,-73v-14,-13,-50,-15,-80,-15r0,-43r379,0r0,43v-71,9,-110,21,-160,62r-337,272r372,442v32,39,80,57,154,50","w":1024,"k":{"o":40,"e":40}},"l":{"d":"70,-1470v100,-20,173,-38,254,-80r36,34r0,1412v0,10,11,20,34,31v23,11,61,21,116,30r0,43r-450,0r0,-43v58,-11,108,-17,142,-45v6,-5,8,-11,8,-16r0,-1192v1,-74,-10,-115,-71,-124v-18,-3,-41,-7,-69,-10r0,-40","w":555},"m":{"d":"1174,-944v157,-59,301,34,301,203r0,637v0,9,10,19,31,28v21,9,57,20,110,33r0,43r-430,0r0,-43v48,-13,84,-24,106,-33v22,-9,33,-19,33,-28r0,-529v-2,-112,-5,-207,-113,-207v-107,0,-165,86,-224,156v-27,32,-53,70,-78,111r0,469v0,9,10,19,31,28v21,9,57,20,110,33r0,43r-430,0r0,-43v48,-13,83,-24,105,-33v22,-9,34,-19,34,-28r0,-529v-2,-112,-4,-207,-113,-207v-45,0,-93,23,-143,70v-50,47,-102,112,-159,197r0,469v0,10,12,20,37,31v25,11,60,21,103,30r0,43r-430,0r0,-43v44,-11,78,-22,103,-31v25,-9,37,-19,37,-30r0,-607v1,-70,-6,-107,-64,-117v-19,-4,-44,-8,-76,-12r0,-40v94,-14,168,-45,240,-80r35,35r11,229v73,-105,152,-198,269,-248v28,-12,54,-16,78,-16v157,0,227,90,222,256v69,-102,148,-196,264,-240","w":1645},"n":{"d":"650,-940v159,-62,310,29,310,199r0,637v0,9,10,19,30,28v20,9,57,20,110,33r0,43r-430,0r0,-43v48,-13,83,-24,106,-33v23,-9,34,-19,34,-28r0,-529v0,-117,-12,-205,-128,-197v-112,7,-176,78,-242,150v-32,35,-63,79,-95,131r0,445v0,10,12,20,37,31v25,11,60,21,103,30r0,43r-430,0r0,-43v44,-11,78,-22,103,-31v25,-9,37,-19,37,-30r0,-607v1,-68,-3,-107,-61,-117v-19,-4,-45,-8,-79,-12r0,-40v93,-15,166,-44,240,-80r35,35r11,249v76,-114,179,-213,309,-264","w":1130},"o":{"d":"524,-80v208,-5,273,-162,273,-375v0,-169,-83,-295,-188,-363v-35,-21,-69,-32,-103,-32v-210,4,-273,165,-273,377v0,168,88,293,193,361v34,22,67,32,98,32xm706,-924v180,85,290,313,227,570v-43,176,-152,316,-319,364v-313,89,-534,-129,-534,-454v0,-208,102,-347,226,-441v94,-72,272,-99,400,-39","w":1030,"k":{"x":40,"w":30,"v":40}},"p":{"d":"621,-100v178,0,250,-139,250,-326v0,-169,-56,-307,-155,-377v-112,-79,-220,18,-285,85v-28,29,-57,65,-86,108r0,397v80,58,151,113,276,113xm55,-880v89,-19,167,-45,240,-80r35,35r9,198v79,-93,165,-181,283,-219v195,-62,313,93,358,258v38,138,23,324,-32,434v-54,108,-122,213,-229,262v-142,66,-282,-28,-374,-106r0,473v0,11,12,21,37,32v25,11,69,21,132,30r0,43r-459,0r0,-43v44,-11,78,-21,103,-31v25,-10,37,-20,37,-31r0,-1086v1,-69,-10,-110,-65,-121v-18,-4,-43,-7,-75,-8r0,-40","w":1085},"q":{"d":"745,-730v-49,-97,-207,-159,-333,-98v-116,56,-182,178,-182,353v0,164,67,288,170,347v147,85,260,-56,345,-133r0,-469xm926,-930v-18,59,-31,133,-31,213r0,1092v0,11,10,21,31,32v21,11,57,21,108,30r0,43r-459,0r0,-43v63,-9,107,-19,132,-29v25,-10,38,-22,38,-33r0,-541v-84,95,-160,196,-329,196v-164,0,-253,-137,-304,-275v-38,-103,-46,-255,-4,-361v76,-190,211,-354,443,-354v108,0,169,39,231,93v41,-26,79,-60,113,-93","w":1055},"r":{"d":"684,-676v-7,-92,-72,-186,-162,-126v-90,60,-140,179,-177,306r0,392v0,10,12,20,37,31v25,11,69,21,132,30r0,43r-459,0r0,-43v44,-10,78,-19,103,-29v25,-10,37,-21,37,-32r-2,-638v2,-85,-55,-97,-138,-98r0,-40v83,-23,173,-41,240,-80r35,35r13,227v49,-98,108,-193,201,-242v71,-37,167,-17,226,17v26,74,-21,184,-43,247r-43,0","w":811,"k":{"q":30,"o":30,"e":30,"d":20,"c":30,"a":20,".":150,",":150}},"s":{"d":"476,-842v-114,-77,-311,27,-223,150v99,139,343,151,425,312v15,28,22,60,22,97v-3,214,-141,313,-344,313v-88,0,-181,-34,-250,-73v-24,-55,-6,-182,7,-240r43,11v15,129,110,204,250,204v101,0,164,-59,164,-159v0,-138,-151,-166,-248,-222v-99,-57,-212,-105,-218,-251v-11,-275,376,-318,560,-183v10,51,-31,113,-50,150r-39,-8v-32,-48,-66,-79,-99,-101","w":791},"t":{"d":"676,-117v-96,66,-193,147,-332,147v-132,0,-174,-108,-174,-251r0,-615r-129,0r-21,-28r78,-66r72,0r0,-246r119,-104r31,25r0,325r327,0r29,29v-26,36,-61,78,-101,100v-56,-28,-155,-38,-255,-35r0,529v2,110,2,205,108,205v84,0,141,-26,219,-66","w":705},"u":{"d":"625,-894v93,-11,183,-41,260,-66r30,39r0,667v2,62,-2,123,23,150v42,13,73,-5,121,-23r10,45r-71,44v-48,27,-90,68,-148,68v-23,0,-42,-15,-57,-46v-15,-31,-24,-81,-28,-150v-104,96,-184,196,-357,196v-178,0,-238,-121,-238,-309r0,-432v-1,-73,4,-122,-57,-133v-17,-3,-41,-7,-72,-10r0,-40v98,-10,173,-35,251,-66r28,39r0,587v2,137,23,244,153,244v143,0,210,-92,292,-172r0,-449v1,-76,-6,-123,-67,-135v-18,-4,-42,-7,-73,-8r0,-40","w":1085},"v":{"d":"989,-887v-53,13,-92,21,-110,68r-283,760v-21,51,-78,75,-135,89r-330,-849v-17,-45,-54,-54,-111,-68r0,-43r386,0r0,43v-42,6,-75,10,-102,23v-18,10,-19,23,-11,45r246,641r231,-641v17,-61,-50,-55,-104,-68r0,-43r323,0r0,43","w":1010,"k":{"o":40,"e":50,"a":40,".":200,",":200}},"w":{"d":"1425,-887v-48,13,-87,17,-100,62r-221,766v-17,55,-81,75,-137,89r-238,-678r-205,589v-19,53,-76,76,-133,89r-262,-855v-6,-26,-42,-47,-109,-62r0,-43r386,0r0,43v-51,6,-87,10,-115,27v-14,9,-15,19,-10,35r188,635r246,-740r69,0r260,740r173,-635v4,-15,-3,-28,-21,-37v-18,-9,-50,-18,-96,-25r0,-43r325,0r0,43","w":1446,"k":{"o":30,"e":40,"a":30,".":150,",":150}},"x":{"d":"451,-887v-44,7,-97,6,-97,49v0,10,7,23,19,39r161,222r154,-222v31,-33,25,-72,-21,-80v-15,-2,-32,-6,-53,-8r0,-43r381,0r0,43v-99,7,-156,33,-196,90r-210,295r267,365v37,47,83,85,160,94r0,43r-402,0r0,-43v40,-5,91,-4,94,-44v0,-11,-7,-26,-20,-44r-198,-269r-189,269v-49,68,34,85,98,88r0,43r-379,0r0,-43v82,-11,135,-41,173,-94r243,-338r-261,-355v-31,-36,-78,-52,-144,-57r0,-43r420,0r0,43","w":1030,"k":{"o":40,"e":30}},"y":{"d":"989,-887v-53,13,-92,20,-110,68r-334,901v-68,176,-158,319,-312,394v-83,40,-204,31,-267,-10v-37,-24,17,-58,29,-82v20,-24,50,-56,75,-72v68,42,169,41,222,-10v73,-70,126,-175,167,-279r-328,-842v-17,-45,-54,-54,-111,-68r0,-43r386,0r0,43v-42,6,-75,10,-102,23v-18,10,-19,23,-11,45r246,637r231,-637v14,-62,-60,-54,-115,-68r0,-43r334,0r0,43","w":1010,"k":{"o":40,"e":40,"a":30,".":200,",":200}},"z":{"d":"137,-946v50,16,109,17,176,16r492,0r22,43r-557,797r422,0v17,0,32,-12,46,-38v14,-26,29,-69,44,-130r47,10r-7,201v-1,19,-3,35,-5,47r-715,0r-26,-45r555,-795r-346,0v-81,7,-98,75,-117,150r-49,-12","w":905},"{":{"d":"649,-1553v-97,63,-181,146,-184,301v-2,136,45,193,41,329v-4,139,-79,223,-180,270v128,22,180,118,180,268v0,137,-39,210,-41,342v-3,166,64,239,174,297r-23,61v-172,-73,-316,-152,-317,-387v-2,-142,41,-207,41,-350v0,-129,-93,-185,-221,-158r-17,-53v128,-33,232,-101,238,-230v6,-133,-46,-199,-41,-332v8,-228,160,-325,324,-405","w":688},"|":{"d":"320,353v-22,21,-73,42,-105,52r-35,-23r0,-2003v36,-21,61,-37,104,-49r36,22r0,2001","w":469},"}":{"d":"588,-651v-130,33,-232,97,-238,229v-6,131,44,198,39,330v-8,228,-161,326,-323,407r-27,-49v97,-63,181,-146,184,-301v2,-136,-43,-193,-39,-330v4,-138,80,-220,181,-266v-129,-24,-181,-118,-181,-271v0,-136,37,-209,39,-340v3,-168,-64,-239,-174,-297r23,-61v173,71,315,151,317,385v1,141,-39,208,-39,350v0,129,93,187,221,158","w":688},"~":{"d":"721,-639v93,-9,131,-78,176,-160r53,25v-46,104,-116,212,-210,269v-30,19,-61,28,-93,28v-146,0,-224,-160,-371,-160v-95,0,-128,78,-174,162r-53,-27v46,-104,117,-211,210,-269v30,-19,61,-28,93,-28v150,0,226,144,369,160","w":999},"#":{"d":"399,-590r189,0r73,-256r-188,0xm87,-500v7,-27,19,-66,30,-90r172,0r73,-256r-144,0r-25,-24v7,-30,20,-63,31,-91r171,0r83,-290v27,-21,56,-27,88,-41r29,22r-89,309r188,0r83,-290v27,-21,57,-28,90,-41r27,22r-88,309r151,0r25,25v-6,27,-20,68,-31,90r-178,0r-73,256r151,0r22,27v-6,25,-18,67,-28,88r-178,0r-87,305v-25,20,-59,31,-92,43r-26,-20r93,-328r-189,0r-87,305v-25,20,-57,31,-90,43r-26,-20r93,-328r-147,0"},"!":{"d":"293,-236v70,-3,98,43,98,113v0,93,-48,159,-137,163v-72,3,-100,-41,-100,-112v0,-92,50,-160,139,-164xm176,-1398v45,-30,106,-61,156,-82r43,25r-49,1066v-27,19,-39,28,-74,39r-29,-21","w":557},"\"":{"d":"309,-834v-25,12,-59,21,-96,21r-53,-613v41,-20,100,-41,149,-54r43,21xm668,-834v-25,12,-60,21,-97,21r-53,-613v41,-20,101,-42,150,-54r43,21","w":870},"\u00a0":{"w":451}}});
